    0.2243435126259631928746784979011863470077514648437500000000
    3.9318362053757285323740688909310847520857133640611110676950
  -20.4917685348344136286868888419121503830106604425944098479303
  -19.8057939707020587150054780067875981331017092024538189953252
   -2.6633593315251777866592419741209596395512120984990110440491
  -13.7487931636454803197011642623692750930887142991840558427418
  -11.6134759059949583814841389539651572704400507892630673880422
  -11.6134759059949583814841389539651572704400507892630673880422
    5.3581512001597202399238994985353201627770688720103996318983
    3.7218660546391291177314997185021638870266601765760909572062
   -0.1365824925435932257755666796583682298660278320312500000000
    4.6448914379332988389137426565866917371784003202471708779171
    0.8841332473775955769212941959267482161521911621093750000000
    0.6002539550528513956351162050850689411163330078125000000000
    1.8659553217988822382267244393005967140211462780872883560368
   -1.2933085327681439480329572688788175582895243917963370090758
  -20.9880720665398250446287420345470309257661520219680428861666
  -22.1018409993663453860790468752384185791178003682734547252115
    4.5381049869078804448463415610603988170657120026722179152962
   -7.8364815064944712830197204311843961477337236459320047375929
   -1.4805714978863053765678614581702277064334302814417211527249
    4.7952771044339748129914369201287627220189038725918059961256
    4.5090549549093701386937027564272284507784592147669020055764
   -0.0135576266364754172144557742285542190074920654296875000000
   -2.1039353571981758150855057465378195047393997314855510795392
   -9.1666339044627598298120574327185750007696740321067200140719
   -0.7752336004921893675145838642492890357971191406250000000000
   -2.5494141200646458500500557420309633016605033847787766026344
  -14.8237279919367495040205540135502815246690938803204049130929
  -20.8972395125296337425879755755886435508881556012467242985464
   -2.1110202125727708377667113381903618574157965381777193478959
   14.0666773120015839992902328958734869957073560466969361888841
   14.1428801497225986594230562332086265087231591020127222390408
    1.5437728942051958114234366803430020809184925836350567378644
  -13.6200624942214894019798521185293793678383755821998774223046
  -13.6200624942214894019798521185293793678383755821998774223046
  -26.7329076862794394742195436265319585800367300824789219935408
  -26.7329076862794394742195436265319585800367300824789219935408
  -26.1684735305760476364866917720064520836068720423780216907055
  -26.1684735305760476364866917720064520836068720423780216907055
  -15.3143633064437238999744295142590999603383996547207279535480
   -5.9125697800574696927355944353621453046842144757033125816058
   -3.5935609787792950342577569244895130395915683542999315446948
    1.5025919628778874326258119253907352685939384028837212056360
    2.9301964921303604860725045000435784459135602390926865763664
    2.9301964921303604860725045000435784459135602390926865763664
   -5.1798446204563539652099279919639229774513153144309272875202
   -8.9461162000320904041927860816940665245121878025343359198031
   -1.9268387128117367979029950220137834548964351487636599278894
   -1.9268387128117367979029950220137834548964351487636599278894
   -0.3813853786770122766824897553306072950363159179687500000000
   -5.0707272590856984351148639689199626445807517492172598877236
  -91.1419500140039957614135346375405788422300464671027431280271
  -91.1419500140039957614135346375405788422300464671027431280271
  -20.3957960293594844358722184551879763603360293862581473227271
  -20.3957960293594844358722184551879763603360293862581473227271
  -11.5687034662424093056642959709279239177788850831693163551331
    1.8913183656172440905152143386658281087889261423777434450979
   -7.3403639504044120300818576652090996503883884531916749725855
  -32.4699964619948602262411441188305616379022731546326841377497
   -8.5162740084668637763343213009648025035920721996793796726643
   -9.0069725286944155584478721721097826957768809502034323871003
   -0.1975192004169041837258191662840545177459716796875000000000
   -3.1430743981637596640155152272200211882614339222339097879213
    9.8173165780220923437582314363680779934001569610485618503182
   18.0764659189957583862451429013162851333750968959816319523565
  -22.5274437471515938113952870480716228485272927392895272266866
   -2.1911209681696925954952348547521978616730575353562823343049
   -3.2550647349354591142400749959051609039330555063796734242954
  -16.0818695751444877828362223226577043533443346230226519789242
   -9.2747266473279630361048475606366991996833276648620968468799
  -10.9236448734604074672915885457769036293110039423994634691546
   10.6602372374145204503292916342616081237871287804068788483185
   -0.4382996335595836789877921546576544642448425292968750000000
   -7.0063855955421887600209629454184323549322104674607765571408
   -0.8740564206156596904762068334093783050775527954101562500000
   -3.6986983195812488389719874248839914798763746009250397786251
   -3.6986983195812488389719874248839914798763746009250397786251
    0.4154376621611701736469512979965656995773315429687500000000
   -5.8156627674950769346651213709264993667645265804559237333961
  -10.4377391135327108884212066186591982841568383614770715829213
  -13.3569939823536731893227624823339283466437243021688900198947
  -16.7129089815545448516331816790625452995423080031835152737295
  -16.7129089815545448516331816790625452995423080031835152737295
   -9.8435457698205546250846964539960026741100150984028029294977
  -10.3697185347542237821016897214576601982192883878482629741917
   -2.5782320138345782289945873344549909234065877892452323228253
   -1.9042644469046292599045955284964293241514844817811300747190
  -32.2423331575084972655531601049005985260246644878024883539974
   -7.3705609032713610417886229697614908218437939391901169384868
    2.5939232495557815738607132516335695981998427255476996324592
   -4.0697787840498342859518743352964520454436638293560918616099
  -10.2407895923030203277903638081625103950575725720710699232730
  -17.7950779958852507434130529873073101043831909460353781911479
  -22.9624194078534245022638060618191957473923584026844648479765
  -17.4249562374071196302338648820295929908880459766377485322600
    1.2910910356005016463853962704888544976720758632226535541079
  -12.9027241952986706507999770110473036766147040340011197705232
   19.3263347861066812072294851532205939293049702327269804162036
   13.3552038149846730163972097216174006462195286510241217160818
  -22.8091491277642788304547138977795839309859957974667187601826
   -5.2261067584995402057757019065320491790809879743571314914327
  -11.1112080242038988586728009977377951145253751404770393461957
   -2.7940070155600658097228006226941943168660663840393429353194
    4.0739204046592494279366292175836861133605369893258603720219
    4.0739204046592494279366292175836861133605369893258603720219
   -8.7954622035857603634667611913755536079471357132082412560903
    3.3147381612773076930977822485147044062638793767862728323492
   -3.3222685647180774104469946905737742781663507295654628557986
  -12.0509857164531304363208619179204106330960118691447067074257
   -2.4243299841758778612188507395330816507357288702818298938083
   -0.7371245052713482071027328856871463358402252197265625000000
    6.0935952639213226689207658637315034866377776480055856005662
   -6.6359296365542919104996144596952944994021531431563898535331
   -3.2344047848334485095733725756872445344948689411267776844152
    5.3465854133875261311459325952455401420632542224685161760771
    5.3334627496991062756137580436188727617302978041141202521377
   -0.9175112012569192065924994494707789272069931030273437500000
  -91.4873616257457484834958449937403202057556908604766874103005
  -91.4873616257457484834958449937403202057556908604766874103005
    9.6889854088302609369520723703317344188761368969457997146919
    4.3639969027951250879482358868699520826371783265351510180540
   -3.9731909887237759626543720514746382832556351041793642610447
   -1.9040020652426727920669691229704767465605419062010292064746
   12.8497775118071224653704121010378003120516768536715328389225
    9.7572802634745823269213360617868602275920073845806901078539
   23.3691497321049865831810166127979755401783017521835059907699
   -0.4563848049587413413519243476912379264831542968750000000000
   -0.4192787792434483629122610182093922048807144165039062500000
   -0.4192787792434483629122610182093922048807144165039062500000
   -3.3859818656607991727014450589194893836999973922219193618965
   -6.5524066187657554749534938309807330369997480301341560697775
    1.2689657964119647193257378603448159992704177624609806059515
    1.9549403605443167464272846700623631477370319664687589564358
   -3.7588685008259132835917171178152784705189664144145029387567
    2.2421031447627175481329686590470373630540154013003934124850
   -0.6872994223441871719515461336413864046335220336914062500000
   -0.6872994223441871719515461336413864046335220336914062500000
   -5.2780811187844962617532473814208060503044758661176955964958
    3.7363962506155870002544361341279000043896469258968951240640
  -13.8561273340594084402255248278379440307718986246284131985009
   -7.0905083138384634722228838654700666666082976616983597356474
    2.9615111894024668259817190119065344333670439388581497458036
   -3.5837821527332343052307805919554084539439781621406972832991
   -5.3411394233380260487820123671554028987923761979494300374916
   -5.8627927811205413632933414191938936710400739014339055526920
  -20.4955400342714710859581828117370605468900577447045863419794
  -20.4955400342714710859581828117370605468900577447045863419794
   10.3438948057536439506520764552988111972884832827560396321490
    2.1263167227709569573335102177225053310409908817472976374541
   12.2908465899550805033868527971208095550627408254583222334368
    0.6276534310857329046484665013849735260009765625000000000000
   -1.3058604205826176425375706457998603582391796095608483021613
  -14.9585273966493410569000843679532408714404331496571135747247
  -16.1306853368635430001631902996450662613033548621802343766032
  -18.0828406622750392784837458748370409011973672044033274130019
   -6.5774382599886260791777203849051147699404402486046868789600
   -3.3745709960342384903242418658919632434869763135264293670792
   14.5332756725185312518533464754000306129562340052824928217451
    0.7601925502094745157322108752850908786058425903320312500000
    1.3209188639152249500341440580086782574663330067421418380554
   -2.2074003914690605299142589501570910215394025034001092416373
    7.7944890352218756390811904566362500190792128142677809854843
    0.7164182141836318296057584120717365294694900512695312500000
   -0.5973826324869797588235087459906935691833496093750000000000
   -0.0244562251695219501357314584311097860336303710937500000000
    2.9324122480136898261093847395386546850226011736136388606706
    7.0923682556942706511904361832421272993139875047303249601853
  -15.9500992681982189935752103338018059730646967978655135678038
  -47.1042544255278912146422953810542821884501340843605648574228
  -18.6190613979974806113659724360331892967360912353068496008566
   -3.1701407740488063424777465115766972303413793445757536035230
    2.1616708889386622161055129254236817359940197855739277436874
   -3.8826943206037207723113624524557963013677512349155246583712
    5.4540358822981023223519514431245625019113556255430146686685
    0.1612618391844250209654632044475874863564968109130859375000
  -13.0092439888140987136466719675809144973850459642608248594115
  -13.8764137937885188023301452631130814552409076693901692941657
  -25.7872174015541268943252362078055739402960450646118456650738
  -17.8628887851231255012862675357609987259042368592851743927408
  -14.7955472568910444408629700774326920509447079420111247593680
  -13.3512593064540627807446071528829634189703802452444376519229
   -4.2048432930956494146812474355101585388214486059607043250059
    1.9601493148611870420694458516663871705546474877399296891860
    1.9810649147492274124715549987740814685836087769474374708888
   -8.6000516083711051606996988994069397449556591403640127261407
   -8.9536474272322674750057558412663638591832138434187287743655
  -14.1216681172934368504456870141439139843090810178725410272464
   -8.7309205597271883902976696845144033432070980611221484215022
  -16.4702634315510501039625523844733834266783602041377144768791
   -7.1333963005470923945949834887869656086020425497209185698038
   -7.1333963005470923945949834887869656086020425497209185698038
   -7.3724761104175531301052615162916481494957728853246050655335
   -7.1466191118938189319464981963392347097449355650896936109840
    0.2615624844141457572277431609109044075012207031250000000000
   -6.0595691219452314513205237744841724634215050909507898678582
   -2.5462734299250109337720004987204447388667693879109535875685
   -0.0025458094423678190310056379530578851699829101562500000000
  -12.5942824731700699913972130161710083484742186377499197281334
   -0.2278181522123836622029102727537974715232849121093750000000
  -21.5654864994345132345188176259398460388342031922205122366587
   -5.0338825025939408774888761399779468774832515354340639603401
   -2.9387146603850622383902191359084099531195296320199757986502
  -13.1952105635404066674709611106663942337133075909220952005286
    3.5171144885858751649720943532884120941187949051328299469089
   -7.6702425018008906221211873344145715236720170401439399727147
  -16.0149103617893899809132562950253486633418440229120054653402
    0.1907601190652190581431568716652691364288330078125000000000
  -17.6689068775998592286669008899480104446540943438873898109306
   12.3379103707234776265977416187524795532317207149635857268342
   16.9690958996726095620033447630703449249392247352303917468561
   -2.1256026018209066563713349751196801662460684820940835199705
  -18.8698267436333892987931903917342424392838828904613352315006
  -11.3881701973563540519762682379223406314933520576457469557604
    0.7301190158313453082428168272599577903747558593750000000000
   10.6523917655424451567114374483935534954149306336519631235286
   -1.4619549503861914985236580832861363887797605983033347785734
   -4.5770578157598897917068825336173176765475521441286329680450
  -25.7237206833765412739012390375137329101751488052158997233540
   -1.8601887465284874245696755679091438651098566410862546431565
  -13.9983160253874849843214178690686821937663878540055425534750
   -3.4342157779268722705978689191397279500986534343727861286257
   -2.5748396565263087509833894728217273950595699160753249219048
    5.2094367139852950643330586899537593126335269966739099594154
    0.6923099102472280996778408734826371073722839355468750000000
   -8.3182976366151333280640756129287183284820634683626871716161
   -1.3110334065100812672710617334814742207536792596800574375878
   -7.9176923411069086711222553276456892490445132906990750396206
    7.2631329836143097011813551944214850664192155019009435294713
    1.4442464929997185230092782148858532309542776174804475434531
   14.8317115580476368563722644466906785965074786519684441408072
    3.7529679442787609033871376595925539732006942571045730105783
    2.4804670153688244127465623023454099893588169882587294208150
   20.6612411046270878500763501506298780441435974513746664881776
   -4.6284091726416836110047370311804115772281318633348339729398
   -3.6629411713769002290064236149191856384304254791589674491921
   -7.5813451947931778107658828957937657833155064162175706721140
   -0.7331713974219951079902557466994039714336395263671875000000
    9.8859795946152537737816601293161511421276243988536341492247
    3.2246080846454394652766950457589700818085519291950728692442
   -5.6566814085233660946983036410529166460078790176813254232163
   14.7536708058867223058996387408114969730485590119913822175069
   11.6577656929065671675971316290087997913446243438845134624272
    3.0540314809972861631592877529328688979171302225800910838662
    6.0275758751520926992384374898392707109495577579002462441901
    2.9841617323600946320993898552842438220999707360989558389499
    4.7091489284105705337424296885728836059604909862265796590498
   -1.4640339382126810185980048117926344275485304362492381952840
    5.6455880007287309041430489742197096347850315120637041972179
   -1.9261481946089498151764018984977155923857534891072558553538
    2.5551159666596747754852003708947449922580417535215651725076
   -3.8347603591602714701025433896575123071698705596180938408731
   -3.9173991075220353508257176144979894161253145737630052646283
   -1.0995140463038115541394290630705654621132345531562999284565
  -11.6758067679659518489643232896924018859949061530606478796510
   -9.9586380540713239639671883196569979190899580532965279371781
  -99.6018563510559005180766689591109752655761055746700494936507
  -99.6018563510559005180766689591109752655761055746700494936507
   -1.9409777023124221706495973194250836968436196087182126724464
   -4.9365341614207132181491033406928181648290662456371195542091
 -111.7212476347372813734182273037731647488428385143661859401047
 -111.7212476347372813734182273037731647488428385143661859401047
   -5.1848745645526292946669855155050754547157233067252211147490
  -11.2157436373613617064393110922537744045339968629912433096749
    8.6219220175951996054664050461724400520388050910155709103082
   11.1529062579420319423206819919869303703390044083134133729182
   18.1674239191963273754026886308565735817089039557412556156945
    7.0808182744515315576450120715890079736761616363317606206926
   -3.2134358697988774089537855616072192788147693070854239276275
   -0.5038661531823245276484612986678257584571838378906250000000
   -0.2358543102624950371648537839064374566078186035156250000000
   -1.1913964521684059505446384719107300043114832100306960480394
    2.1923555427820073937539291364373639225975884716753338622180
  -13.6846863701820655734309184481389820575814650525130773582535
  -15.3687806381305627212441322626546025276296993998869683921079
   -9.5573312553653160250632936367765069007943751336872620064214
   -7.5944621121335575963939845678396522998865609748814668092028
  -22.4649596578170402949581330176442861557171882394807590749338
  -15.4151167513045805890214978717267513275259736766615153422187
  -15.2041003829046168505101377377286553382985237244433995971947
    4.1563660198437766268853010842576622962982196311101725469776
    3.5409434598005113947749578073853626847293165622866103917782
  -16.4305984657838450857525458559393882751585556722982239088040
   -0.9166489472686213391128262628626544028520584106445312500000
    1.7838331411474781518222698650788515806211225653313927729953
  -16.2621069628875396517742046853527426719785002436670888062218
   -4.6248126895497430055570475815329700708423259984001105954052
    6.5355296354534448965978299384005367755937908066663169803382
  -21.2241086157539697865104244556277990341342453561119108949104
  -14.2586127081922047210582604748196899891004413944931517590466
    4.3813223980204503149593620037194341421159508209237526232537
   -4.3007423165255085351077468658331781625779277528421363084974
   -5.7271625320088199728729705384466797113460655646578858976465
   -1.5456903318045744910591565712820738554012210431269730652934
  -15.1865637715284371722646028501912951469532959968261463065241
    3.1178590262718084424875542026711627841018694984669017430733
   -3.8747808850270590852460372843779623508481836534631396821686
  -15.3847625166930725981728755868971347808950920008919469909711
   -3.6365769065844286700439624837599694728878035706937629909135
   -7.8169544744440377925798202340956777334270686747345899811444
    6.1593430003665821104164024291094392538115930416573173225038
    4.2687092663667183245479463948868215084107289257049480179521
    1.8611413449791915919462326201028190553201997481716280211640
    6.9495913707017020755074554472230374813130891518104894803092
   -0.3395302424697376197926246277347672730684280395507812500000
   -0.3395302424697376197926246277347672730684280395507812500000
   20.0226193577341256002455338602885603904871224068398009020125
   11.9890623565744345313532903674058616161434517266073808683463
   -1.1566618442616096729125274578109383583077345465398382566737
   -1.1566618442616096729125274578109383583077345465398382566737
   -7.3234368067962920534341719758231192827278535561531206584446
    7.5747321160054390531968238065019249916132310498820978411072
  -15.5951640132046200903914723312482237815971508763735431655393
  -20.4851849573319171327057119924575090408475696682455583570956
    3.5212160869173532162790252186823636293437124692926224435149
    1.5302310639225402688623489666497334837924755545913085780074
   -2.8994938731923154406899811874609440565130555046363633755346
   -5.9347069623332080468003368878271430730863303489112552401719
   -5.7767106280787290373268660914618521928829672012247760089532
    0.6528419572521655389607531105866655707359313964843750000000
    3.3231652518532412976526302372803911566758728727221265059051
    7.6098637795839829678357091324869543314036010988333925707828
  -21.0236775921822847124076361069455742836152992745269496170657
  -17.8514557377404550209121225634589791298043749439835425098098
    1.8643833671030436427429322066018357872976648985879979142642
   -8.9538084537369737603285102522931993007725694304723204086760
   -6.9021372654388075673637104046065360307744190341338270686361
    3.2741550784383419703260642563691362738633368657333877341435
   30.4431378782569375118782772915437817573771024134982468936714
    0.2933741992120572072977324751263950020074844360351562500000
    5.6935774452600798056778330646920949220699178433580452598131
   -5.4549260246273982843945304921362549066583655568600643656659
  -24.1356826350000730485589883755892515182672438178691763552783
  -24.1356826350000730485589883755892515182672438178691763552783
  -16.2391942120861685339150426443666219711423017694113832996030
    8.9459079124467173471657588379457592964238087432587859495259
   16.7036902218359273319947533309459686279419594334335335093826
    0.2675694806059780717077956069260835647583007812500000000000
   -1.9395653056317365692251541986479423940195981853108256311497
   -0.5454248303504388717399820052378345280885696411132812500000
   -2.6923131229787635732009221101179718971272221399166914044993
   -8.4239273003577608278646948747336864471497436118458176193868
   -5.7634582060592283170308292028494179248852157656640143614610
    4.4198422871213072227192242280580103397401856638375228471905
    2.3079671572119417888302450592163950204866199428782412574297
  -11.4324207651277749420160034787841141223991462865785194457834
  -12.1150957949520332590509497094899415969937640479166481034669
   -9.6798611009725661347147251944988965988230296075255860374116
  -15.1740600102272118476776086026802659034840485292631627935842
  -24.3481959732895241188543877797201275825679370573870723774414
 -116.5144322694583252086886204779148101803484077594375451656721
 -116.5144322694583252086886204779148101803484077594375451656721
   -1.1991906220713193231830473450827412307271230915558149378935
   -6.8067353523228533163091924507170915603687703305963736668122
  -11.4586290274304190006660064682364463806236528460561954625382
   -5.6848686158977201898778730537742376327556414255894716791927
 -103.9548557973772773266318836249411106106802850625745551443667
 -103.9548557973772773266318836249411106106802850625745551443667
 -105.2763803343897990316690993495285511013993611081590807600915
 -105.2763803343897990316690993495285511013993611081590807600915
 -108.5837726180660069985606241971254348751941118333239455328983
 -108.5837726180660069985606241971254348751941118333239455328983
  -14.9864242469683777159161763847805559635272456372133359263007
  -14.9864242469683777159161763847805559635272456372133359263007
    1.7591548096218059260564814394456334412110855136583951809546
  -25.2299961869785995816073409514501690864748349018681632487936
   -8.7290586308892628153444093186408281326358076306928792873648
    4.3900517863869250589914372540079057216676540116091969512900
    3.0763419047924056570764150819741189479850482250189258426821
    1.7971342602274402722173363144975155591977924937003540917546
  -12.0946967742320019567614508559927344322293447642081364137247
   -7.0534523043274424125570476462598890066198671169297070967649
   -9.7813987549750862626751768402755260467601159243622583564370
   -6.6862787939825256700032696244306862354327687471564683227818
  -23.5063603108482332970652350923046469688588224804711220802435
  -16.9477253601206108157839480554684996605043945815125683726154
  -16.1573433045072079039528034627437591552853080411117153337416
  -13.6098025584003288201984105398878455162148328881395039388725
    9.6692462536607948209166352171450853347849358714674298947090
  -14.8822608412243049258449900662526488304247521178414518216894
  -46.7072632662864606345465290360152721405372447650699306744204
  -23.9401825662779437209337629610672593116936138589776962102727
  -25.8660374287543852744875039206817746162604584411722866418039
  -19.4227346510155491898785840021446347236775996499123681699431
  -15.6837650194922293422905568149872124195214103060500233246964
  -15.6837650194922293422905568149872124195214103060500233246964
    8.9339660389663304584928482654504477977818321963182769312279
   15.9355780074505624099856504471972584724543345668280287629657
   -6.4862561242592500221348927880171686410951584148012832585755
  -13.3624440881058141883386269910261034965613308453367169110188
   -2.5762210444187694236006791470572352409381720051776148480462
   -4.0535883770058473984931879385840147733718135556173307866367
   -7.6810286010152504232451065036002546548899815074868736531271
  -13.6990882099857458342739846557378768920999082505014090293215
   -4.4241080559123178161939904384780675172838289345482201890479
   -4.4241080559123178161939904384780675172838289345482201890479
  -23.1409682507756713221169775351881980896166106734070904461697
   -2.5743046989682736302995635924162343144435722085974577969233
    5.7713737647185796575399763241875916719479046865668191551738
   17.0685003758316078403822757536545395851260653442304988413791
   19.1578191149602794496331625850871205330035768957148194026910
   -6.9641013209108324488738617219496518373540544018820529461987
   15.9005594401572984963877388508990406990168088392480118118070
    4.6034328290442685371886000211816281080279792362718321242965
    8.1654691470298725874954470782540738582671074377213420611151
  -11.0297537031936023765865684254094958305439920551056658032725
    6.9966479310155174076157891249749809503606701102297507416664
    6.9966479310155174076157891249749809503606701102297507416664
   -3.1764903653285618823076674743788316845917197028780532179580
    0.5328759912427221134834098847932182252407073974609375000000
   -5.8826868958231655071244858845602720975919073649773102685003
  -15.8869117031472324441665477934293448925135029140369137862437
  -12.7348758198696785370884754229336977005098443903654250963493
  -22.7391006271937463623089570319280028343367744120812786147453
   26.5330861972992408936988795176148414612011340580842537926611
   13.2305706599585217730918884626589715480901646241055852165973
    7.5972834587072002321406216651666909456308867781483162021624
   -5.2529705366570436098072605091147124767342059529317976716894
   -1.1355941949538477242498402119963429868229625987490592696445
    1.3881956876621499574753215711098164320002264280866766987228
   -2.6526059004921789252762209798675030469913897450006165145259
   -2.6526059004921789252762209798675030469913897450006165145259
   -3.3108705458290206280480560963042080402398592013268286983154
    3.8468457473417521086389569973107427358655581494965531064537
  -97.9459024797030792797158937901258468628649280344069260321479
  -97.9459024797030792797158937901258468628649280344069260321479
    7.4120798457915721968447542167268693447167492471791073281627
    0.9408764905465991645883150340523570775985717773437500000000
    6.9163152680380353132250093040056526660970002512663029035887
    6.7694887677866191211251134518533945083667898411278050617697
   13.7288509515691661277969615184701979160409701557730317131585
   13.7288509515691661277969615184701979160409701557730317131585
   -2.9519041193137587342221195285674184560797444002290139769696
   14.7283670658887899662659037858247756958116019451767433141155
   -2.4254194551563585946496459655463695526140866042924442312588
  -11.9174816290217329139977664453908801078883942545818396495860
   -4.2364912456057473022497106285300105810196530095478235200689
   -7.4048935902713157730659077060408890247399373269273775613471
    5.1291060938324832818580034654587507247962487407737926586327
    1.6007868384481982459988103073555976152431804669596665792663
   -5.3068879458564683915255955071188509464302904870630007326058
   19.3434478145896449063911859411746263504170433522696724066593
   23.1117094801874145559850148856639862060716673024573788829656
   -1.5386262802586996301101862627547234296810010095315442569520
  -12.8979890629369489118971614516340196132754671567377812707103
   -4.2332408234900604782069422071799635887177097035460517840129
  -35.1405888529157550692616496235132217407484734773007319489664
  -35.1405888529157550692616496235132217407484734773007319489664
   -3.8679585403907807972245791461318731308011815708834026147552
   -3.8679585403907807972245791461318731308011815708834026147552
  -11.0854165252094798432835887069813907146535300200011848597822
   -4.9378977320742496459615722415037453174627342396181196661625
  -97.2372167685490040867080097086727619171856964368756947254128
  -97.2372167685490040867080097086727619171856964368756947254128
   -2.2711645319722366664905166544485837221162315764544508179884
  -13.2314724677885884318584430729970335960485393100868413232615
    1.0390357660750577650787818129174411296852116051083272113810
   -3.2539778153321980980194894073065370321297710164310150297163
   -8.6142894811311823133337384206242859363619196007008859744053
  -10.6412635645181055110697343479841947555620171845035637947494
  -15.9449378962637524637102615088224411010859332402632939064865
   -9.6962067591664968801978830015286803245615670070436281859279
    4.1802591398471848904705439053941518068344310326586647503581
    1.6109743501488331673954235156998038291942987914049497244570
    8.4564682539934690197469535632990300655427118551002983349853
    4.4742107009841856068987908656708896160158603730646222107423
    8.6606281637231781189711909973993897438112944653006431232457
    3.9359079035191193440823553828522562980680771953162146986297
    4.1001044492737026558870638837106525898009859138236891023410
    4.1001044492737026558870638837106525898009859138236891023410
    6.0919551580180444361189984192606061697050982203898205669114
    1.3672348978139861053193726547760888934145481867335171426217
  -12.8485511906182772179363382747396826744173986089630142256350
    0.2621036690107841904406882349576335400342941284179687500000
 -108.4153775768788960931487963534891605374260133527676054619121
 -108.4153775768788960931487963534891605374260133527676054619121
   -1.6809329777566999197802033449988812208188008724809149291373
   -1.6809329777566999197802033449988812208188008724809149291373
  -10.2395284652034010974830380291678011417464144189787066287096
   -9.7037790480729224640299435122869908809733157343453983718974
    2.4461143893795034287563794350717216730135769061851129472448
   -1.6038655654611471135240208241157233715069156390072987326221
    1.4278708521108380846698082677903585135947227398799125600669
   -7.1914262580588461659658605640288442373328591091816895222576
   -8.3806888583322702857003605458885431289734423140056055436874
  -12.1246923129074932745652404264546930790036587936370507334024
    4.5366094159250343054168297385331243276629399078064419219380
   11.6278405335680545817922393325716257095422341942871697884480
   -1.2657825124426886898021393790259025990972281678939037640009
   -5.3789098279907481270356583991087973117867887128852410041460
    0.6562014751618123753473810211289674043655395507812500000000
    1.7069821891509868727609955385560169816029691803408132790602
   -0.2247854055651520299718981732439715415239334106445312500000
   -3.1286183782861396451835389598272740840934850692059713397787
   -7.4723501466703936557678389362990856170709195033654857120221
   -4.4494602735528143711007942329160869121584203143223559520750
   -1.0665397551692006317125560599379241466530052493482054880963
   -3.8016909776422558309150190325453877449063574945423690819066
   -8.6887798225174357469313690671697258949343620228730674522528
   -3.7546077817947418608923726424109190702465938993669081993709
   -5.5553999312102995133955118944868445396464154476473101448156
   -1.4522276004999838949771628904272802174102008394706224605364
  -11.2958035281597357624150390620343387127005595879595938958874
  -11.7324217097855054703359201084822416305628188409008235157515
   -6.0869692721474990548813366331160068512007610612456488976872
    1.4774865129917971184880798318772576749335653440543362361325
   -4.6246449189046421324178481881972402334247233360792071267256
   -4.6246449189046421324178481881972402334247233360792071267256
   -2.9008303267656998514212318696081638336202952560386294065560
    1.8212852778119428265313217707443982362760573073783148370547
   -7.3196817983868038837158565002027899026924504067836377562406
   -2.7336211655891169414189789677038788795491274882733989024513
   -5.2731517646694126000284086330793797969856856235064984193455
    2.0371337298747009825206077948678284883514112002758357792694
   -0.2939234758026366134409101960045518353581428527832031250000
   -8.1068300582076986415813735220581293106138661143353121662286
   -6.6574496880304057100374848232604563236285483481244770889086
   -6.4274592084141319858758834016043692827271952957747696900154
   -3.0086237531704549397204573324415832757971932977972510113106
    0.3077937449285398363585386505292262881994247436523437500000
   -4.9642793532283926438708476780448108911550753991160148091942
   -7.6897634198497843982522681471891701221522559912244958098802
   -4.8025643101640813625863302149809896945988652810725366336582
   -4.7418440565333161984540311095770448446308641279068344705690
  -10.5715860844005966612257907399907708168107452904509027548053
    5.5148779398398115603185942745767533779184804033523475960201
  -10.0377665948750127711264212848618626594617202893294676540922
    4.5969205228705858345961132727097719907794392955348833810943
    4.5799636074683860442746663466095924377475054508422192202875
  -15.5939044109187356923484912840649485588188296384639360780707
  -13.8833991727232550772441754816100001335246042076860918788530
    6.0227567129077543839343888976145535707518003110890000468488
  -16.8918026622827390781367284944280982017641191210029488976282
    1.8423357713216428344082942203385755419744675482290665080468
    5.9102169813533667053206954733468592166944056182335717721930
    0.5163549910752651683765179768670350313186645507812500000000
   -6.3136368607740864788979706645477563142822874535706145625018
   -0.0242276388356339467122779751662164926528930664062500000000
  -96.0771920775282808335759909823536872864475394978312514568320
  -96.0771920775282808335759909823536872864475394978312514568320
   -2.9717427675863210545514903060393407940886395906002466940572
  -14.4253748223573339259928616229444742202864769978826094407658
   -0.5414302967387802922871742339339107275009155273437500000000
    0.0249313509958621892792507424019277095794677734375000000000
   -2.9940010902384424085198588727507740259192528672612069118121
   -2.9940010902384424085198588727507740259192528672612069118121
   -1.0266697920536511645650534774176776409156712700254493497410
   -1.0266697920536511645650534774176776409156712700254493497410
   -3.4676358504616215938654022465925663709665979094393290466984
   -5.9315522502017685724240436684340238571210570351010746291469
   -5.5792132359257635698668309487402439117472630210255397934025
   19.4652792562788654606720228912308812141561465317518337902156
   -1.6087888975966277982365681964438408613216775568817440322308
    2.9251327261590764905463402101304382085821661379656283698223
  -12.8246923123869827065846038749441504478548810802276530734170
   -1.7870573447917676990215340993017889559282080639849363748671
   -7.0214830105336885068822994071524590253881541764770481369322
    4.6842644958411776556772565527353435754810415516891366968816
   -1.6727303292934467826569289172766730189335714574547084696494
    3.3378265386142049742090875952271744608903611831969785674021
    3.2380511539306811030769495118875056505227036513056994405890
   -3.0424875663700143846313039830420166254065931769979468758985
   -5.4087730225303705111628005397506058216134708091455402748307
   -0.7062691771373676985490419610869139432907104492187500000000
    7.8975353581775618039273467729799449443875160598118481217913
    8.3121872763440798337342130253091454505981478463664496014136
  -10.1945373071543166076935449382290244102552924975086293465173
  -14.8993684274780449072750343475490808487047939833858252444201
   -6.1683122312934512976312362297903746366546172093324959195534
   -4.9672662529029061317942250752821564674413935115120734739031
    1.9788352350338163088139253886765800416484112159859314653900
   -4.7134101896597249137244034500326961278950033942506582583610
    3.2764635729304378841675315925385802984261742551066592110889
    0.9289935499943724472871053876588121056556701660156250000000
   -6.1540946139223988708977230999153107404754075451269322789594
   -6.1540946139223988708977230999153107404754075451269322789594
   -1.7438420342022791231784140109084546566022333212249570158669
   -5.1262413071354302473991992883384227752723208548109309732065
   -3.3695765861225472903583977313246577978158911012447813146758
   -6.0994976372492999416863312944769859314009655781346502764593
   -6.4378044158020131249031692277640104293870539704515462770605
   -0.0153251143665689149031550186919048428535461425781250000000
   -8.1813717927569804544418730074539780616820361133277266507941
    1.0458997387781594490263614716241136193283135717871626453909
   14.5924510174173054366519863833673298359024444726472656151970
   -9.6053182242432200155235477723181247711252209358190301695874
   13.3331415460329374411685421364381909370520319734787972866320
    4.4021567220815578380666011071298271417650139791301507687241
    1.9847946389531294641983549809083342552199640561785198533984
   15.7283986934641184518568479688838124275323073555072798243337
   11.4947950304082500139202238642610609531487038307013156265281
   -2.6462339389074087669939672196051105856914888233882124183062
   -2.8493442110754663154637000843649730086347532796241671238926
    8.9823327723528088029070204356685280799931714415194416393660
   -4.3897053874392915062685460725333541631730858860216931550234
    0.5987144805730411079025543585885316133499145507812500000000
   -7.5571246808240237768927727302070707082803934069504802015720
   -0.4778273697616345350169808625651057809591293334960937500000
    0.2565720204612219612627654896641615778207778930664062500000
    0.2565720204612219612627654896641615778207778930664062500000
  -26.6326914690079803449407336302101612091260119239806323815618
   -4.3356305194104942657418177986983209848435783846455123350971
    1.5987601276236753644610644187196157872688595199599009686240
  -23.7119851044436060760745021980255842209036512840856598049854
   -4.4797370530175824043794818862807005643877516402181196564904
   -3.6695609417380126160423969849944114685085553425981319669578
  -16.7089181000002398036485828924924135208252640555218140946957
   -3.7269913775548086931621583062224090099362098405061744080539
    4.1749220130137185691410195431672036647827303342133882742929
    4.1749220130137185691410195431672036647827303342133882742929
    7.0067175360252909044334046484436839819005945003946282420106
    5.0556398511051998667653606389649212360419223053654788707458
   -5.9423506627720446005014309776015579700513628200841835090524
    4.2896167070322217540478959563188254833252950673164433001075
   -2.2329699861794081172661208256613463163392259764714435097834
    1.4021397294818482848199892032425850629816819850506683769190
    3.2858374174694802150042960420250892639184296770762224177199
    0.2172990187107561865786919952370226383209228515625000000000
   15.0126038830248589306393114384263753891101506131597677870110
   -3.3781647813429342974700375634711235761667274889791346421117
    6.8229754194513123621845807065255939960529863634758527157728
  -14.0361345638407932767677266383543610572918062636794851905677
    9.7177821973448708092746528564020991325449812956721876822149
  -20.3990291858634833488395088352262973785550259022314009321388
    0.0250016254220022382526167348260059952735900878906250000000
   -2.7733336705680837752652223571203649044057240472266862633756
   -0.9966813498649315095079259663179982453584671020507812500000
    4.1113472997877718029258176102302968502074883143907306196744
   -2.8499087412351951087430279585532844066640810869535506426427
   -2.8499087412351951087430279585532844066640810869535506426427
   -4.7285509857898935237585646973457187414204051429508569865817
   -4.7285509857898935237585646973457187414204051429508569865817
    2.5999480476565555164825127576477825641651181479640323228444
   -8.8286730667010786532955535221844911575382245658219774991691
 -100.9479005396906359237618744373321533200390172843009838687539
 -100.9479005396906359237618744373321533200390172843009838687539
  -11.8097311838113725457333202939480543136683443889320625464489
  -21.7858415590401435224521264899522066116493064898003506909365
   -3.7388689950701241571096034022048115730313113402388559587932
   -3.7388689950701241571096034022048115730313113402388559587932
    2.5383265666303600482933688908815383911151461178372600756263
    2.5383265666303600482933688908815383911151461178372600756263
    8.2515268712993616873063729144632816314757888270142941901812
  -14.2554174273821470109169240458868443966016597500965633129835
    3.7420240736959202720868233882356435060528590683807940984676
   -6.2608630222989436475700131268240511417434913572587403510756
   -1.8478449283029410032952455367194488644613490371246348262744
   -1.8478449283029410032952455367194488644613490371246348262744
   -7.3242173216868406981916450604330748319679664342723985163246
    1.1988650122471229408915860403794795274743304939370593659651
   -8.1492634064711140240433451253920793533385066644360434909198
    2.9571352547881977201882364170160144567511349622103880951538
   -1.8632469674336684661852814315352588891996721203340031474921
   -1.8632469674336684661852814315352588891996721203340031474921
  -99.0849829663885373065568273887038230896724055235801951932682
  -99.0849829663885373065568273887038230896724055235801951932682
  -11.3738839819612369552714881137944757938468571867923147116721
   -5.7013794664466983519446330319624394178432390050654389260014
  -14.2644513479789853960255641140975058078870667777982054133770
  -14.2644513479789853960255641140975058078870667777982054133770
  -20.4845915535967613152479316340759396553190047791563468367780
    1.2478658750300439805869245901703834533700574120541760795626
  -11.6952408687132827225241271662525832653131577356704240037996
  -12.0185668164393568702053016750141978263943278952485654177971
   -4.1682612221948627251322250231169164180786238781371510405409
   -2.8223159394885519724027744814520701766034834223863153061711
  -10.4521123523295820234579878160730004310684700150152020465160
  -23.3517760425821307990190689451992511749439139880123265799337
  -16.2178899591270884172899968689307570457577646331432571198034
    1.8013368705559633653479068016167730093015553469157915206882
   12.3380108484363439913522597635164856910796211794079506380565
   -0.9331946765009511146615750476485118269920349121093750000000
  -18.7708143207249307238271285314112901687759976476214664063127
  -14.7668464338757239318056235788390040397752532622265507221492
   -6.9220415783218998129200372204650193452885938137634214900193
   -5.7838088744194049439784066635183990001720959513488223898925
   15.9160059220541292290818091714754700660822498750306429388434
    5.6759865646242575465407753654289990663570142946200368859165
   -7.1666299037298584195809780794661492109351358135726678267141
   -7.1666299037298584195809780794661492109351358135726678267141
   -2.4837633635520055541689998790388926863688596932360217162792
   11.4476348828252429967733405646868050098503293391468982702125
   -5.1282720985147429715311773179564625024833208819570522736493
   -6.0089451170371290800176211632788181304975787381496739465497
    9.6949018868422989214650442590937018394541441733748496615223
    9.6949018868422989214650442590937018394541441733748496615223
   -5.4943898070427206192789526539854705333750083197996214227493
   -9.9078393313834389743988140253350138664318396776018100641945
   -3.2552322034927247962343699327902868390107228657442628031503
    2.2523945722356404353092784731416031718270637337315536113251
    1.3767718578918284322298859478905797004709821953383268434583
   17.8534769956712580096791498363018035888803041633443420183469
    4.1378388094426750143384197144769132137328984022781956776820
    2.1351676785903714872461023333016782999054383023714008245982
    1.8380812188537427598333806599839590489877853453291344495721
   -4.2874894440881838875156972790136933326752690903879599062950
   -0.3461826065503351701480028168589342385530471801757812500000
   -3.3180772186981655202941965399077162146592675721257323883574
   -3.9847708263617489521379866346251219511061379964660685588887
    2.7635008808977774563686580222565680742284096943274923453626
   -2.8005795910001474169348512077704071998616766815551555410941
   -3.5604925490709593560723078553564846515681675946109860993859
    2.3862501591369493780803168192505836486833937647385714178543
   -2.6664584286555266245954953774344176054020444534809919031874
    2.9056410166858590571337117580696940422079452747503948470983
    1.1038405700471387582695115270325914025314811399870617907222
   -3.2302132287347573580404969106893986463570484788452057055682
   -0.9694487303828100976943460409529507160186767578125000000000
   -6.9716294619861329806553840171545743942311961631553693268212
   -6.9716294619861329806553840171545743942311961631553693268212
    3.8904658219311198941170459875138476491003008898254670118564
    4.8617629150417718264520772208925336599385694178697930623173
    6.6593132058986705956726837030146270990420629008149313400116
   -3.1845834455819166386447705008322373032593281877968773241602
  -14.8127696828841202147941658040508627891649354388014137065537
   -8.7228389952647660265938611701130867004458616549762913067239
    8.3336089665361008371746720513328909874023628032888282175966
    3.1971325592456181219347399746766313910507802785232645165809
   -1.5945201873465215669511962914839386940014156090453112072659
    5.2780297279070857996430277125909924507179890119553917966215
   -0.2776732139127910947706823208136484026908874511718750000000
   -5.1468106360570757829009380657225847244300508105171482230951
   -6.0344276719798601860134112939704209566160666980555362584093
   -6.3288375946053001541713456390425562858628039923998314030658
  -10.6233886004546160819472788716666400432664718254915151802339
   -6.4694304472051600285453787364531308412599409751210796067155
   -6.2314258218785223419899921282194554805801396520944914581310
   -2.0774676686290667326773018430685624480262760380521808849388
  -12.5320151354113100694576132809743285179230254299975596246302
    5.4392430758293457415675220545381307601968672184427416494484
   -2.8820946598253738279993285686941817402860834931975998808481
   11.7594062390510583071545624989084899425592986269393930507832
    7.2836423429664858275600636261515319347435103549547294465255
   -1.4975102474298092047888530942145735025416885756788451416946
    5.1582153940107016154570374055765569210090386815974900872940
    9.8404982464914958484314411180093884468150909844362671121707
    4.8718121704231940327645133947953581810033351016778748324896
  -15.4203505724362983642095059622079133987540048656159988100664
    2.7667608873656472923130422714166343212148012495582339860571
    7.4490437398464424134658656839746981859261880250532610115864
   -4.5519956151508962349794273904990404844317500399253610637827
    8.4563056652343515651182315195910632610383172043989434288767
    6.1935783572321225776136088825296610593841279594501884649008
    6.1871182917541514001413816004060208797500289750623914041510
   -4.5205273539801975601903905044309794902834725261670883408853
    4.0818345627377885520559175347443670034438557920121808953406
   -8.2019938512615269132766115944832563400328813421485231639645
   -0.2968234704626588893461303086951375007629394531250000000000
   -5.8430270736749605475779389962553977966351521533230041237697
    4.7620059738953299799391061242204159498249707374193099661925
   22.4551273296533580037248611915856599807904232033268766753031
   -3.9301233887545583556288875115569680929212833947446972051570
   17.1127543493180667155684204772114753723270255912903955736909
   -0.5650687320470852981202369846869260072708129882812500000000
    5.7493581395521351495858652924653142690700808948524360448599
    7.5697159869822403521766318590380251407678904505500167374871
   -5.7802559300278355536306662543211132288021592590262842176751
   -1.7573020953666083077138182488852180540574586642176822605032
    8.0527284712630748941819547326304018497526203120791722124555
   -3.0332365001598278198002844874281436204932563022629036526137
    3.3641264638509240647579190408578142523790279662679428247793
    3.5854666754112760607142718072282150387790318899668797021207
    1.9897008377285758662367243232438340783133819673247351961924
   -6.3272714974580868130260569159872829914139503027508630354515
    0.5461138033344994369144842494279146194458007812500000000000
   -6.3267867857701558520489015791099518537567844192972061977139
   -2.3906186220096410366409145353827625513094345718344643090708
   -3.1559236094877514133827389741782099008583366728903622092130
    4.1056200205288524429647623037453740835219982668067215938213
   -7.8605242944261863868860018556006252765713267590016245809520
   -1.6598224208808058932618223479948937892926012808619459753707
   -1.6598224208808058932618223479948937892926012808619459753707
   -1.7099982808214195806328916660277172923100636813712633764381
   -0.2698125687763436864052835062466328963637351989746093750000
   -4.5540679031969730772289040032774209976229747069334182137104
   -2.5967276823400995411361691367346793413181309187320091490774
   -0.7598417757251960669151458205305971205234527587890625000000
   -6.8223739251259969407215066894423216581394727379738643033095
   -0.8019468298555043617170667857863008975982666015625000000000
   15.2826882127688659096520495950244367122762425944746801020864
  -11.5724520359891478449299029307439923286523009231209169516867
  -24.6306504715566276786375965457409620285215137128039957048357
   -0.5893300333545984370786641193262767046689987182617187500000
  -19.5647095170329805569053860381245613098288270034454695710257
   17.7989628407558022615830850554630160331856840345436276625544
    0.2365368037426449632221192587167024612426757812500000000000
    6.2345056246511854070035951735917478799865750202449670282877
    9.4952601292156781909170604194514453411172055075884257083963
   -2.1582920022917844171672641095938161015526415707381993226161
    0.4164067943351622558267877138860058039426803588867187500000
    1.6221609031752493024214345496147871017467972443611295532884
    1.6221609031752493024214345496147871017467972443611295532884
    0.2750184728727046445939663499302696436643600463867187500000
    0.2750184728727046445939663499302696436643600463867187500000
   26.1348505387145024769779411144554615020943961682299023219034
   29.0979625428576156309645739383995532989715731191184797819594
   26.7847345741230391524823062354698777198988287057375975258582
   -4.4032494109209787680470071791205555200609132194111244848896
   21.7427378098870001110753946704789996147315502127918327027870
   21.7427378098870001110753946704789996147315502127918327027870
   -9.8348783527639085377813898958265781402660145899654364868637
   -9.8348783527639085377813898958265781402660145899654364868637
   -8.3060417083537299021145372535102069377960193078786650697743
   18.1756260542306726790684479055926203727855701379683790872405
  -11.7691765729769404202897931099869310855951944769221027518871
  -11.7691765729769404202897931099869310855951944769221027518871
    9.7605302005239966689487118856050074100566093816323414294868
   18.2582050186357349730315036140382289886608749480347259031710
   -3.4337340585893358912983330810675397515322163128831861562078
  -23.0322670914116791607284540077671408653428491717828653174293
   -3.9918300531331194491713176830671727657347442569855628835606
   -4.1382903554406977875146367296110838651687507848030518102956
   22.5405231122886569039565074490383267402814527391144215764613
   -6.4755796308122128834838804323226213455247770357964497689955
   -7.7829575895061733348256893805228173732814748501119712217788
   -8.3688766875004212408839521231129765510620566826680531772170
   -3.3154271326167643607618629175703972578073063966343462134601
   29.9359314137672605227180611109361052513342493082896792933752
   -0.8251884065927773681536905314715113490819931030273437500000
    0.6638628616539394844409116558381356298923492431640625000000
    6.5936890173744808762990032846573740243960185940256266638842
   -3.7522126761612604184392694151028990745572000498774445868260
   -6.1582155810627812186908158764708787202880326430479281812885
   -6.2276460499613151000630750786513090133712745704691564119810
   -6.8928959528020392610869748750701546669056988657833278787848
   -6.8928959528020392610869748750701546669056988657833278787848
   -6.4550427851966594161581269872840493917512634125489467736426
  -22.8528847920381608105344639625400304794479419918581458904392
   -3.5354344503500350072044966509565711021449314113900556032856
  -21.0271878789117110386541753541678190231477725566033372464971
   -2.0589534668927593763498862244887277483955251312774615015113
    4.8871994483301266498642689839471131563222550978705336649169
    7.1881294090206262481501653383020311594062209448520520588793
    7.1881294090206262481501653383020311594062209448520520588793
   -4.9818199374465708118009388272184878587759378952770514285735
  -12.7167365917128236674216168466955423355195966887652834341782
    9.9972734583111151351886292104609310627057090943586689434138
  -11.4810677562755394376381445908918976783836790970555686326539
    0.6718532952559277404702697822358459234237670898437500000000
   13.9430588201932224023948947433382272720439351480477000012081
   -6.2481661966373289729403950332198292017028936501982162238862
  -19.7026342129122866708712535910308361053611548970084977000091
    1.8769923395945229405157306246110238134874782393463937939756
   -3.1499036736402832303838295047171413898491159415462490770699
   -4.8519940875917066946954037121031433343922975924313669940334
   -8.9153198732511498292296892032027244567936593175917377493229
  -16.9800366953571675310286082094535231590395745701325921835776
  -11.7750541543136169053695994080044329166498862950868888529607
  -21.7083951642341723697882116539403796196143374818006094586620
   -5.2861939967808657669934291334357112646141742093316041232409
   -5.2466900670963534381030513031873852014580172567402419825453
    6.2366002151893935590010187297593802213714642544195576217235
    9.1946656972408540298147272551432251930304368141155038082775
   -1.8040046693488103191072013942175544798387429758501103470083
  -10.0809869853250688720436301082372665405347500895324766381490
  -17.2289648373632751088280201656743884086735465161480227258431
  -21.1965018356840673163787869270890951156771938238531505426172
  -21.1965018356840673163787869270890951156771938238531505426172
  -36.5520991363521332573327526915818452835351550225284238417277
  -31.2789779468897748415656678844243288040390934449225399020167
  -16.0611859662545910509834357071667909622310381771067740468908
  -11.4296437799832553139367519179359078407371569416845508831356
   -9.8086056654972360036026657326146960258555948972182721779826
   -0.8585279701678567576550449302885681390762329101562500000000
   -1.9760747039815660386352647037710994482054923177508332218290
    0.5395028504734231677986144859460182487964630126953125000000
    6.7201465986923869522229324502404779195834894300709128192814
  -11.2761891874380548728140638559125363826834553338678979962402
   -5.0402046314668060844610408821608871221579387973882984750443
   -5.4115506265390544982096798776183277368585290021504284181850
  -17.9175301586270556697400024859234690666330367690513462930750
   -9.8809753594299003509604517603293061256481285348222650435551
  -15.1511758210320444106855575228109955787770004666162115012390
    6.7535585568274107970410113921388983726551082155821863388454
  -18.8410018702780064359103562310338020324845453070389649687314
    3.0617288494737744386497979576233774423621737195101912773197
  -17.6772242885466539519256912171840667724739246733058782013375
   -6.1235058810004145968264310795348137617156194470752144013107
  -19.0588594839801821478886267868801951408526252854103340510604
   -6.4982022078527883479637239361181855201768932656161449180216
   -3.0457617113156865151779584266478195786498511976941265077328
   -3.3261530242826791159416188747854903340364097357593842226157
  -15.6315681510633748274585741455666720867271825047225428667639
  -15.6315681510633748274585741455666720867271825047225428667639
    3.6413953897193387376773898722603917121913959779435783779453
    5.0204088794562951036937192839104682207144428084541368284205
    5.4146836625642116302969952812418341636697495656605212275118
    5.4146836625642116302969952812418341636697495656605212275118
  -88.8121006174668679022943251766264438629802878891003080596410
  -88.8121006174668679022943251766264438629802878891003080596410
   -9.0797385601986011494091144413687288761205623399277854663267
   -2.5527775685478508727044300030684098601360002406160836584442
    6.3788544634352977169555742875672876834916249186790535789983
   -8.0637242114681804139308951562270522117673988982857310943551
    1.0636496091433040867002546292496845126159853037386264300504
   -1.4232904102803296542134603441809304058562245016558525395933
 -113.0318385320738485688707442022860050198353816807893329482584
 -113.0318385320738485688707442022860050198353816807893329482584
  -15.3756022750175223023916259990073740482443284350717333808098
  -15.3756022750175223023916259990073740482443284350717333808098
 -108.0353628062694610889593604952096939083987225561952908009694
 -108.0353628062694610889593604952096939083987225561952908009694
  -21.6701764632053084369545103982090950012366238562586374614743
  -12.8598110600189556862460449337959289550875728970335589095572
    0.8054560327806359332214469759492203593254089355468750000000
   -7.2740524186764785596892579633276909589820897351723371234131
    7.8285981980184393691502009460236877203045186354416426344859
    7.8285981980184393691502009460236877203045186354416426344859
   -8.1932035811930852275963843567296862602294080872030183793120
   -5.2373006406053006500656010757666081190147730537916184239915
   -2.5860790972729041925504134269431233406085894039810149373892
   -2.5860790972729041925504134269431233406085894039810149373892
   29.7803873321211298730304406490176916122655315169213800013544
   -9.4399552416102530116859270492568612098763201494115800591177
   -3.3847271960873714924389332736609503626848292341081720413668
   -2.7901710769225740449428485590033233165761465736492188899993
   -3.9383726263929035305011439049849286675482120627492237459954
   -5.4879332114436607525931322015821933746378209590548387734265
    3.6172893456869514849927327304612845182445398887132154126131
   31.3438320533361789443915768060833215713731254671948870115932
   -8.6340731993852699588387622497975826263491167526690396867779
  -18.8868885315043364414577808929607272148271083161083709981196
    9.0006413197768271317045218893326818943089807909532345740470
    9.0006413197768271317045218893326818943089807909532345740470
  -15.2305002207417281567813915899023413658253985887310496902057
  -15.2305002207417281567813915899023413658253985887310496902057
 -109.3129066637656165994485490955412387844938943144117965738621
 -109.3129066637656165994485490955412387844938943144117965738621
 -112.3214444317091817993059521540999412533578140554322365681171
 -112.3214444317091817993059521540999412533578140554322365681171
   -2.0946494909223991598423708637710660696045052139959575378817
  -17.8597012742828624709545692894607782364022813924720581964940
   -5.5363547969427839845479866198729723691980982328362213220227
  -12.6095682000850928261570516042411327362153187351159427415926
 -109.8819830062428479777736356481909751889112979153680330154041
 -109.8819830062428479777736356481909751889112979153680330154041
    0.3228706646071429764432991760259028524160385131835937500000
    0.0595818319989007694204019571770913898944854736328125000000
  -20.4455274480265174474880041088908910751492983450092107448275
   -5.4532240964905218660874197666998952627222070799182453633343
  -96.4144248042383225083540310151875019074194669448094764882916
  -96.4144248042383225083540310151875019074194669448094764882916
    0.1050618486018350949962041340768337249755859375000000000000
   -3.5707275460844458692122316278982907533671863445679673721235
  -14.2255108975072932508965095621533691883191670751234879451286
  -14.2255108975072932508965095621533691883191670751234879451286
   -1.4997339033488774617808303446508944034587434320194520399932
   18.1306472852246471916259906720370054245128320146628331350178
  -11.7948741959430023484856064897030591964808334737412441061825
  -14.6388101318182926036115532042458653450119756022579452930532
   -0.0004407165856155081939959927694872021675109863281250000000
    4.1476437887966914885851110739167779684097244534955960373866
    4.3570918464638834777247211604844778776200834097509575904397
    2.7177157694727189785055543325142934918423592110369723921036
  -11.9267047531940448834575363434851169586269264212883155778400
   -3.3253664082074738672645253245718777179742448512045388040098
   -3.4498784115807623606997367460280656814600541016148980954035
   -3.4498784115807623606997367460280656814600541016148980954035
   -1.4651219480508519410477674682624638080607687844207497009031
   -1.4651219480508519410477674682624638080607687844207497009031
   -0.4784748314829396775849090772680938243865966796875000000000
   10.5374835159402202577894058777019381523209741420905441905696
   -2.5664390642824717048142701969482004642505427482011210519222
   -2.5664390642824717048142701969482004642505427482011210519222
  -10.9107295057236939328504377044737339019855550005608301571591
   -3.0827377960684652080658452177885919809364079044464655186533
   -8.8284016199340165087505738483741879463260661632693892300914
    2.2295505558274366642024233442498371005074668724739049018401
   -5.6279219762035896934548873105086386203807216581186849525445
   -0.3871433932755590223706576580298133194446563720703125000000
    2.4936479074262019040020277316216379404086313595488245743148
    2.9207873221889046888577468052972108125708104064044915087643
  -13.9024954981120760777457689982838928699595547608877268934212
   -2.7751702538386364693678842741064727306386355527849733567585
    3.9493985247711909103429661627160385251074242648625090068930
   -5.5347873096596202913133311085402965545694960070096923565872
   16.7348636183825689727200369816273450851563378047782438345418
   -7.4629056232779591439907562744338065385873310216568019522003
    0.4589411400161235721206764992530224844813346862792968750000
   12.5349237897251981621593586169183254242035451450642561685862
    1.9466390777659565713975098333321511745467182504618773684801
   -2.3874932605457477308164015994407236576097862795877486314110
    8.4114190822830927629638608777895569801392363753835141034244
   -0.1771915115051712064087041653692722320556640625000000000000
    5.6800530903232786528178621665574610233348615205125285565191
   -0.5488453907036742185354682987963315099477767944335937500000
    3.2408776591333681160733704018639400601410834134406358958318
    3.2408776591333681160733704018639400601410834134406358958318
   -0.0584484884665452675278629612876102328300476074218750000000
   -0.0584484884665452675278629612876102328300476074218750000000
  -16.4323038952697046966022753622382879257322873939999278798858
   -3.8132509739964697281777716852957382798222900597520002723288
   -3.8740209622903618580380680214148014783887714740663371515415
   -3.5011571512071135714450065279379487037684413846578656346699
  -19.6711586286254487276892177760601043701316395849012989445333
  -23.6443636137346047121354786213487386703664922286604581719200
  -10.1825034040681270397499247337691485881880229142054442473121
    2.3920987389367391884320568351540714502352169092526432842714
   10.5608165288861037822698563104495406150895459719811101589345
  -17.6539724382885019338118581799790263176094056374192378116845
    0.1622477585668135047214377664204221218824386596679687500000
    0.1622477585668135047214377664204221218824386596679687500000
    1.7563513121618865575612744578393176198018579901065660060483
    4.7040596586601397532945156854111701250110853917529287577152
   21.7780130582320552434794080909341573715369960508263036187586
   -5.2841125544232570021563333284575492143669802973167710411618
    4.0245963210972579560120720998384058475523952829623687423795
   -2.6055670304053872854410656145773828029651711042655814601149
   -6.9540404723284385823944830917753279209188053111191322696926
    1.6486778949962623830316488238167949020874691917902460543376
   -1.5054021079152488660213293769629672169696423717491064616679
   -1.5054021079152488660213293769629672169696423717491064616679
   11.4223458800704058546671149088069796562278742362844756200083
    0.4063875326472459192927999538369476795196533203125000000000
   -3.5901519582197494173669838346540927886989266895909255553784
   -3.4718287131940863687873388698790222406412836070558639127254
   -2.9830081932043586157021763938246294856093387850966052014510
   -1.6376846152728745664717280305922031402599922431335511471014
  -10.4354805015309999305372912203893065452652351396110411387652
    1.2580501298376742802531680354150012135514918962160471446498
   -5.9445914122713245930640368897002190351529880014831697662403
  -10.8083708536433658053965700673870742321093811664875312760960
   -2.5847328771707740457941326894797384738941108758721868015202
   -2.5847328771707740457941326894797384738941108758721868015202
   -5.8216970923067785648186145408544689416928147051838782221649
   -3.1840963347861386267823036178015172481560258279712594106590
    0.6858272988117199986390915000811219215393066406250000000000
   26.5358718374865674149987171404063701629833626671494435588264
   24.8646268596967487951587827410548925399962949865055485268619
    1.7081337483499672291742399465874768793595465644588339283399
    2.9948847169479879681830425397492945194266387703538352283694
    1.8707169808241173036833515652688220143331920127299662971491
    3.2778173489887878488957539957482367754006625543917272541183
   17.8034677926592301844266330590471625328194764067595734160760
   -3.6915068780604940457124030217528343200710714659257385810627
    1.5931743895498902130469787152833305299293778771451816514919
  -12.9178041677429984446234811912290751934146418708276315599508
  -18.4598777518299286271030723582953214645521363950088413188350
   -6.0317364821633328020311637374106794595762697990065198094041
   -6.0317364821633328020311637374106794595762697990065198094041
    3.7086589394148559151176414161454886198071070164890054620947
  -14.2349365052667558018129057018086314201459562265289093919705
   -3.2482744468808113502689138840651139616990112110232679902286
   17.7893918408000715203343133907765150070321125497583903613980
   -7.7639473435772217158046260010451078414974032664015354561430
    7.6770086814592701784931705333292484283503667377101681438670
    0.9758556624669054713194782380014657974243164062500000000000
   -2.9967732874009778143431503849569708108923994352000218655273
   -9.2372370903727958335593939409591257572241936765730870784773
    1.7692062283339016204308791202493011951459531277667788171555
   -5.9114923199920443863675245665945112705274143677044249915683
   14.2652154970085387475364768761210143566236396048312475548132
   16.2752772142616315420582395745441317558408146071396445277759
   15.2071431723200518604244280140846967697255279130570049632601
   -4.4438293262495527358169056242331862449678644195431404757959
   -7.4667191993671302441271109273657202720696946632737702344380
  -14.5903168930516500267913215793669223785507583344278057526145
   -4.3026787594162598793445795308798551559479853278594355386131
    7.5756878088918853109134943224489688873346672988893410527458
   19.1708283101834062733814789680764079094073950471120028588594
  -14.1327346665233832823105331044644117355450510623513553389756
  -13.2641512233345189031297195469960570335485633186446764131158
  -28.7828848636948428918458375846967101097318396834735260091314
  -12.1474654974817450892032866249792277813047009153556865248203
   -5.7667792523271481641700120235327631235165048266772185859744
   -0.9529863861173935024595493814558722078800201416015625000000
   -3.8464073967476553050914844789076596498517638821348987062124
   -3.3280397576248810231902552914107218384767187390996250141131
   -8.5575305258920622009100043214857578277650761429938596239235
   -3.4421320251687035352006205357611179351831929417189814318547
   -7.9284733590470937159011555195320397615490988480588780404046
  -16.3927213119749737302299763541668653488279614383105191868236
   -9.0494824659821055945485568372532725334233965565728920679455
   -1.4388200396782213630331170861609280109416088358303072804845
   -9.4372303955804053288147770217619836330483152178233832175618
    0.6086603026204395749942932525300420820713043212890625000000
   -5.1998165321266487381990373251028358936348016671617670082839
   -2.7668285865330846107212892093230038881322207328894770347696
   -1.7666396434883724353426259767729789018643960663567870511240
   15.5484942276818820516837149625644087791557103388302706240752
  -15.6459659623232170133633189834654331207390339028761679605212
  -22.6110608817116869317942473571747541427778424527078443120139
   -9.2074908695454737994623428676277399063177997521889990601507
    9.7332072855245552744918313692323863506388646985496977789217
  -18.1224736315191279345526709221303462982310877283604853753029
  -12.1710222694283416444704926107078790664762270112009032955652
    3.4831004123460043153670540050370618701006729917081621926724
    4.9555950122535943336288255522958934307134796634011670029872
   21.1205216121501493375944846775382757187044817524009390831134
   13.5912645307967814289895613910630345344643309872978018403807
   -2.6053130803270927451364968874258920550365515329269049437963
   -7.1616943344444443653173948405310511589102908788952846415796
   -3.8649940545317647000445049343397840857534193831575398860187
   -2.0646688434002973266956360021140426397338777189448348973087
   -5.4761398328248427347375582030508667230646311423048740678442
   -0.5326507900429682251797203207388520240783691406250000000000
    6.9034658180739647548307402757927775383046324125439004419721
   -8.0471281655243132036048336885869503021299355335618229674525
  -11.9505318815015648681310267420485615730373443173225167075615
   -4.0085811158983162272306799422949552536040192590353446075474
   -5.3729121796914469655348511878401041030923262986966822245113
   13.5047249248895671058789957896806299686531101814741353919445
   10.5233844858405340971785335568711161613541669087591477815228
   -3.0712481790730219444185422617010772228263530764902959840904
   -8.8074812432489082425490778405219316482608652465290077181786
   -7.0544055643371619268577887851279228925756783641495547780698
   -5.9216307578271072387110507406760007143064135154709257911468
   -6.5205566235572209876636406988836824893999321499845052265183
  -19.4957962370857309508664911845698952675008955145884229293138
  -19.4957962370857309508664911845698952675008955145884229293138
   -5.0639148252734944577468922943808138370551119786063463899013
   -8.2955962717236104708717903122305870056213290165963209587847
   -1.8461371165126418958379872492514550685896131632820649735881
   24.5391136018952735753373417537659406662167589621332589062194
    0.2539575500546645825394875828351359814405441284179687500000
   -2.5678701121652629524305666564032435417194158698815597877389
   -0.6664958840541082008002149450476281344890594482421875000000
    6.2119483301109577055854060745332390070007186040122783582300
   -1.3679101064093484030337322110426612198362863536968855645172
    7.9228359565989432411470261286012828350125346477559210950192
   -8.0424427904168993563871481455862522125303227162918415622363
  -11.5933114443779103908127581235021352768029510138188685050662
  -25.2015447467581132912073371699079871177858491553011307865108
  -15.3125329390075375357582743163220584392660106146666147247074
  -20.9305063444343417700110876467078924179230921512298328853744
   -9.5844372702446349876481690444052219390939555949168644716150
    5.3219931065755012866702600149437785148659705298949341612875
  -20.1636841052746227376246679341420531273036322948484471686130
  -10.7890124808068019746087884414009749889453044442013372183431
  -10.7890124808068019746087884414009749889453044442013372183431
   -8.4543583374606949831786550930701196193757181174784452209679
   -4.2290092863793589117449300829321146011383608915785712061654
   -8.1088186225484228941695619141682982444822757784266551462320
  -15.2924523070154272375020809704437851905935105101856974328617
   -3.4560904744833256252434239286230877041842102768460536677908
   -8.2649160983011853431889903731644153595031424138647332657695
   -5.8046602204530106661195532069541513919872968173734908550411
  -12.0224482996214590002637123689055442810146920750370362757785
   -3.0756510048582090810498357313917949795745557740664448229538
   -8.4362291115968233157218492124229669570984831185393278694365
    0.7274598194929344785464309097733348608016967773437500000000
   -4.6002037338398986676679669471923261880908430748448502467205
   -9.3844702482462238890548178460448980331489844636014207914028
    2.8017210819416331624154281598748639225980361627683763106617
   -0.4160610224345642205179274242254905402660369873046875000000
   -0.8884123780745358800459143822081387042999267578125000000000
  -97.9011362966052729461807757616043090821031763954098389399507
  -97.9011362966052729461807757616043090821031763954098389399507
  -95.8686104275945183417206862941384315491426987562367625007266
  -95.8686104275945183417206862941384315491426987562367625007266
  -92.9677279287505911042899242602288722992626378368681435773264
  -92.9677279287505911042899242602288722992626378368681435773264
  -93.8789436095076013089055777527391910553668229174213376713825
  -93.8789436095076013089055777527391910553668229174213376713825
 -100.3610784230827590590706677176058292386197086342579212936771
 -100.3610784230827590590706677176058292386197086342579212936771
  -20.4903912494867945781606977107003331184537746650999438501151
  -19.6224695503448245403887995053082704544211545950660079333661
  -18.6298499778727837394853850128129124641555327552535351095104
  -18.9108023763827297614170674933120608329911883852268466180199
  -25.9384060280716006730017397785559296608161756717220830845250
  -13.9206025208906574164302583085373044014079323216395934139482
   -3.2669606715301808819162943109404295682931106328523389465190
   -4.4328696208604068118575014523230493068727635941857832147873
    0.4689084044242917137523818382760509848594665527343750000000
   -0.7468907214724875842648543766699731349945068359375000000000
    8.9720594731814777844647323945537209510869138938912290100536
   -9.4191043827622085160555798211134970188210069790573390158590
    3.2846704995196431831061545381089672446275047474946862261221
   10.9446756606742319206659885821864008903583826746316904668049
    8.9709319176717574606527705327607691288060292764317715633127
   -4.9717944417929835765335155883803963661230374632998608128285
    9.1733916320217954165627816109918057918615979422133262905836
   -0.2950805408832577469979696616064757108688354492187500000000
    3.4930677812255610525937754573533311486269864669180437431837
    1.6237094270940173323936051019700244069111355402399536939197
    3.7467356251571253267229621997103095054653991509758730078650
    3.7467356251571253267229621997103095054653991509758730078650
    7.8087887732871612556095897161867469549236447067748522240276
    3.8748788857016220887885538104455918073682642918689142606586
   -9.3107152484739010844805306987836956977912642613604350010540
    5.0319136326373943290946044726297259330786480381556193202212
   10.7915514835677974758709751768037676811297545517534636385946
   -7.1127968857793746337847551330924034118704600328486125089090
   -4.8904887829753089789619480143301188945806193308982170248302
    4.3116236976865858210317128396127372980149474659684388025057
    7.3904056355672045341975717747118324041420873273905590288801
    1.6146101430370236595734922957490198314201773170558877418147
   -1.8412413375763323486467015754897147417082008750255134069504
    6.3655394072928528359511801681946963071869886714770058755251
   -6.1212275339879704816326011496130377054259449216476879382523
  -15.7272627849842479008657392114400863647576483178485291124807
   -2.1173210671862370269025177549337968230263053177052215241792
   -9.7415032148893931918109956313855946064066930590610122712340
  -98.4530628890152001986280083656311035156973318870294929803953
  -98.4530628890152001986280083656311035156973318870294929803953
   -4.1919196172065040784104894555639475584060948728619546071644
   15.1422825642967993076126731466501951217762615110080535681900
   24.2695559415079067377973842667415738105952230318163800172033
   -5.8502794601724126266617531655356287956280774034101027079917
    3.9965055437821477291038263501832261681586063345717161680441
  -11.4561674441266099222502816701307892799461608031954031462667
  -10.5455105899309629080562444869428873062211265238281252846323
  -18.6286819810358750260093074757605791092055807252699828817021
   -2.7518500370898317797241361404303461313267898065143182497555
   -3.1342190696518619219546053500380367040657181878503845308403
   -0.7509266829770844253744144225493073463439941406250000000000
   -6.2916715357625578874944949347991496324585408472484489204040
    0.0200349118292222350135034503182396292686462402343750000000
   -1.7539004873863537348199770349310711026204597051498919472146
  -21.2947368408841555265098577365279197693027542767866916061973
   -0.4710742569893366926692124252440407872200012207031250000000
   -7.4000036648208142864291403384413570165688521914087881822054
   -5.9200111388021934288872216711752116680188757044690418720936
  -15.6622752449716102773891179822385311126824052600446799294199
   -5.1340583465246556471583971870131790638007689806769573418078
   -9.7682896182538883067536517046391963958812000432896584031859
  -11.4515778250889539435775077436119318008506984469008711518751
  -10.6955951414437215873931563692167401313860317104171558749025
   -2.2508994897315992567143894120818004012124386118809051652968
   -6.8226998434522796443957304290961474180271682899208339125428
   -3.0558903898823825961983402521582320332549611781343992864998
  -10.7161309155388551062060287222266197204668573445961799949803
   -2.2714352638267323314380519150290638208405970097318042850482
   -3.6175094582735662918082653050078079104450100211295292317299
   -2.6331725450690446344026440783636644482631955359852931295111
   -4.5940340685158806977028689288999885320697203780281409671695
   -5.7614721285586103505238497746177017688793549315247129416686
   -3.1080731552784959248469931480940431356452888226162326714785
   -4.1891956770069249671450961614027619361908218755330067428021
    1.6007679127938676533204898078111000359070140712193542347494
  -10.7827478327169057337187041412107646465380732791648124916774
  -14.6390594589873792585876799421384930610764289104346195229758
  -10.1648052724276922731405647937208414077833468257343420971544
   -8.0971266216833441831113304942846298217832925791260509529049
    7.2208943958925502215606684330850839614921214816064100045316
   -2.7281899825760076438996293290983885526677148066640550324831
  -12.4750412788787521378708333941176533699127296659684980112988
    2.2904951120233683070637198397889733314530988056654809575191
   11.8597609492672280140368457068689167499629368090612289977792
   -0.4822117820659457265719538554549217224121093750000000000000
   -1.2434510227703490237161076947813853621491984556423692130423
   -3.1660636411945493051689481944777071476005926577653550215879
   -4.1787597997057224219474846904631704092056457514299983439699
   -3.9666635297774490709343808703124523162870939316067913662557
   -3.1438958777403724909049742564093321561836452191211608030854
   -2.0952857094518257952131534693762660026565686696967620563025
   -2.0952857094518257952131534693762660026565686696967620563025
   -0.2822028270280807493719521517050452530384063720703125000000
   -3.2975414827223215041840376215986907482171443305528388991971
   -1.5175568350379533555383204657118767499934855301478992901457
   -2.2076172087549501554804010083898901939408308853485434440596
   -4.5323213773600707909849916177336126565966525777657486577382
   -6.4219438037094427329520840430632233619737122397890991519631
  -20.3019030347524669366521266056224703788906479045801833623663
  -12.3054879042470304284506710246205329895109937696972214839100
   -2.2925272914510936850263078667921945452706967342220041753009
   -2.0417715197296830709206005849409848451629380450856950494950
   -6.8973410618797252880085579818114638328602919752837088842806
   -9.3010925099304060381655290257185697555610325823136866771078
    0.8786466511827033532000541526940651237964630126953125000000
    4.4584113783553913634705168078653514385256143905555616067635
    7.1792841858519587106002290965989232063346202081271354769393
  -20.7345756447629341323590779211372137069854482040856976366861
   -9.1516121251276931758411592454649507999487401442837527204281
   -4.6145292687651560115114079962950199842486905136482109638383
   -1.2184728512675917500018840655684471130380045674708096121529
   -0.5533042972954498317506022431189194321632385253906250000000
   -0.6179176930083869478949054609984159469604492187500000000000
   -6.8372149892566813633720812504179775714924499500595179350733
   -8.4827629025230990578165801707655191421571110561695504835342
   -3.1793899319683571746963934856466948986076825265025562880385
   -1.8943596220195502155547728762030601501478761306463186407004
    4.6997267189043050450436567189171910285984235170053003595893
   -6.8532208154945113420808411319740116596272273342834696927528
   -6.8532208154945113420808411319740116596272273342834696927528
   -7.6393023137532729549548093928024172782954073948212753765717
   -7.6393023137532729549548093928024172782954073948212753765717
   -1.9775338477672219639202921825926750898375734678853813943209
   -1.9775338477672219639202921825926750898375734678853813943209
  -26.8327466882111629331575386459007859230238639794681485412757
  -21.9439962800320067515258415369316935539406824491635268223572
  -23.4826826773044743390528310555964708328419593817683273746465
   -6.1675488061342171874912310158833861351058495586125196974898
  -29.7829045359386412883395678363740444183568419600206720969575
  -24.8941541277594815539941919269040226936523225390910503754290
    1.2218651144035121980380154127487912774094975382277800978931
    1.2218651144035121980380154127487912774094975382277800978931
   -3.6902263334982166043118922971189022064236095876301767477307
    4.3062350120176677847894097794778645038636373546437124461487
    1.9987872408072129282174955733353272080436132523344153412597
    1.9987872408072129282174955733353272080436132523344153412597
    1.9802302585666127221486476628342643380179648531920452568488
    1.9802302585666127221486476628342643380179648531920452568488
   -0.8810698634587100785964253191195894032716751098632812500000
   -0.8810698634587100785964253191195894032716751098632812500000
    7.2877829880352642533125617774203419685417311704577838897765
    5.7196391741532863761676708236336708068889677522112244012576
    2.1120293505049811955132099683396518230453749162939309189960
   -1.3108526560975555241839174414053559303293322030575019170821
  -14.5390365337099929377018270315602421760665898001948593433477
   -2.1986106927641992925259728508535772562043130379368761201614
   -5.8039489259983954028143671166617423296017372127656076228774
   -5.7330730513527425884490185126196593046230474460841979019513
  -12.6941509281442037604392680805176496505830566579403243807738
   -2.7532435266056669576073545613326132297536096779449768712156
  -18.6527330662312138542802131269127130508559890202167192981682
   -5.4145417198910816836132653406821191310922348129400147244701
    3.9203028183350761004533069353783503174810601152759159839987
   18.5600977357837635395299002993851900100844365875244520896108
   -1.8925221738629829371092228029738180339350299320698011571618
   -7.4332670266484557330954885401297360658700240904049867761062
    1.8732789194978192170992770115844905376448088851796151032384
    1.8732789194978192170992770115844905376448088851796151032384
    7.2026913331626740699675792711786925792747008815455308588170
   16.2047746951241471435878338525071740150570714038190414945732
   -3.4994856290608042925782683596480637788798293167735904716059
   -3.4994856290608042925782683596480637788798293167735904716059
   10.1086189169626106121313569019548594951703905074571905368713
    3.4988709659205428081918398675043135881449655839404348240670
 -101.2719080199043730772245908156037330624697801253637061611342
 -101.2719080199043730772245908156037330624697801253637061611342
  -13.3313141564265862371030380018055438995459271152999479008795
  -12.0457785892123929727404174627736210823147580435517970200919
    0.2245047061277415378910404797352384775876998901367187500000
    0.2245047061277415378910404797352384775876998901367187500000
    3.5185182883996022340511444781441241502787690810132991478772
    3.5185182883996022340511444781441241502787690810132991478772
  -18.3389707414790805728443956468254327774182585040665649227539
  -14.2078084392597823182313732104375958442792370772236969348078
    1.6174319974379562925292930231080390512955150835864547038899
    3.9270961860664330700387836259324103593855145691449105268343
  -21.6565721365790686547825316665694117546240650332529525326658
   -5.3770181545515702836723903601523488760034010926343401578192
    2.8859855647490357810625027923379093408605797599861982253792
  -17.5104147936041663058404083130881190300116439179190229431082
  -28.0482273330071407713148801121860742569175792392378307309018
    0.7845437392901040141168778063729405403137207031250000000000
  -30.3778276729461715888191974954679608345254919311373757379822
   -5.3168344695333518146185269870329648256340941813332460429756
    8.8805066922951887420367711456492543220585263190307703203850
   -4.8050263929899355019870199612341821193730370118003197887299
   -9.5767006572747366277553737745620310306619430750138390878886
   -8.9290525714896418207899841945618391037052905005349883083946
   -5.7984276339062983396388517576269805431408566915170679354606
    6.5644044566734214285474990902002900838900156338158326590415
   -8.6838564629863768118411826435476541519228837963847450604749
   -6.8892755067756805686940424493514001369526932762121707277588
    8.6497415614806723027641055523417890071932444749009958014745
   -1.9142709554668864146975693074637092649950739867228715673038
  -16.0905564449518045933018584037199616432308156145016424974267
   -0.9856418900162120522168152092490345239639282226562500000000
  -12.5789729143522919230235856957733631134125618822499798033473
   -1.7641553234261344584865582874044775962842550810104128041143
   -3.8734489138071728220324985159095376729993667569164869108102
    0.7033906115248049761845550165162421762943267822265625000000
   -0.0119805417282401460710161700262688100337982177734375000000
  -14.6428590555194411138018040219321846962082676394372812996417
  -13.8645846219771371465867559891194105148417290568122698033018
  -23.7977640527004545845102256862446665764029818826288444316904
   -1.9117376264032179822294210680411197245135047427141196197054
   -0.8561328980227332907659842931025195866823196411132812500000
  -13.7091028614064640578362741507589817047219859206052655972387
  -28.7014578473313548556689056567847728729458911884749387627869
   -3.1247049785981979574955857970053330063842841960470802865558
  -11.7506863994154500119293516036123037338343166346754982171425
  -25.4905117657592583668701990973204374313541766891126369131670
   -2.8057067261690971093912594369612634181996931436916724177429
  -10.2449450370739683080500981304794549942091869531347283003763
   -4.5902454127645189174700135481543838977847444500322453820809
    4.6517861741355250870810777996666729450260006005430809572093
   -0.6810749447495858532874990487471222877502441406250000000000
  -12.2932643918769244351096858736127614975065902580286350676940
  -12.2932643918769244351096858736127614975065902580286350676940
   16.9965938320031035857482493156567215919619500156454628651460
   12.2352303194983385026262112660333514213651901994509874179957
    0.6973322251819020767271695149247534573078155517578125000000
   -6.4760939551252523216362533275969326496171846402247775617538
    3.9787968602541776697023578890366479754477168594420614002310
   -2.2887428735449990568895373144187033176438934167614605722100
    8.3203623552245051797626729239709675312103364696533505180293
   -1.0333716202504366066250440781004726886756859593761902889941
   -1.9319248561006014952567966247443109750761874206278496361030
   -3.5346044178329325546883410424925386905696134187659713203252
  -11.1798450754469254064815686433576047420583845513932851446792
    3.3594187501116241634235848323442041873956565876642516775911
   -4.6881295911601688075620586459990590810810199772502072367356
   -1.2736418669458693386786762857809662818918048648872285131002
  -16.7970820929106920971207728143781423568848991406940717027438
   -9.7008518901194662475973018445074558258127911228718744642031
   -9.7344725463740360282827168703079223632884017609290608296934
    4.6183856478730973549318150617182254791293696163993709726768
    7.1037522649850108891200761718209832906775212590044568186763
    6.2643836716574519130062981275841593742416628891358854464359
    1.1512873001383931992336329130921512842186803049796788278680
    0.0709539790138387083118232112610712647438049316406250000000
   -3.0472864706414193314287786051863804459594226304103601093113
   -3.0472864706414193314287786051863804459594226304103601093113
   -8.6906079490184637847960402723401784896914434440933015441111
   -1.9763569416235049480690122436499223113074517536219292771988
   -2.0418057500897766054492876719450578093543748378123168723465
   -8.1780194040409792677337463828735053539336205644439782634335
  -11.7712755623703877461139200022444128990259821518284617726567
   -6.5328498889429749141299907932989299297380759472745140470868
   -8.0549037708037385385750894783996045589506199571118730852247
   -0.8229001459456563027927700204600114375352859497070312500000
   -4.8904445462287391421796201029792428016698526968356884675800
   -4.8904445462287391421796201029792428016698526968356884675800
    1.8329404080182716274549648005631752312196846446296996106220
   -5.7363353077244632061137963319197297096294585342179078342004
    6.5752017819973627155150097678415477275896695625314090861717
   -6.4660898636444903431197417376097291708040059036603895960795
  -10.2262940408134603842427168274298310279921322349217649037051
   26.5731492004735372347568045370280742645458900542304465181118
    8.9577982815600467603189827059395611286229141586098621436115
    8.9577982815600467603189827059395611286229141586098621436115
  -11.6539558749933611636606656247749924659814623651848668154186
    9.8152194762778535164216009434312582016063321781540284426262
   10.4093828528421568080375436693429946899490538567119139639095
   -8.8625250960059887006536882836371660232609056863652348693496
   -0.7146191723472830048535797686781734228134155273437500000000
   -9.2726122337456793331966764526441693306037362676863335491245
   -6.3265906970117358198990586970467120409058321267964388336489
  -11.8734731004951488131382575375027954578486890706589202738994
   -2.9514709813281747585733683081343770027182328515407294891516
   -8.4468033372769539823821105528622865676941940122534224404113
  -11.2033286485682843647282425081357359886251742653354984444096
   -7.5119253952297535548154883144889026880319471138224319091680
   -4.4354828230357874474520940566435456275972528187510299125684
   -1.3670430525447079261880389822181314229975253407097482248216
   11.1080280384898966161699718213640153408132146010675127804366
   -1.4670884771492296305694935654173605144034673727528408700409
    1.4986112352238580847085813729790970683108849411975527846636
    5.5824950691945769420954093220643699169199949243233321876280
  -20.9917257492470454849353700410574674606477465031451566578600
  -10.1805855526772379704425475210882723331526211145657719305823
   -2.1832142214262115764711325027747079730049914236618258690197
    5.0299284084659277027640200685709714889563321265182451484240
  -15.5461854407739501482410560129210352897758258301015409200693
   -8.4179263448242096501417108811438083648743485780399868536646
   13.9379897246003086053178776637651026249034284941769292210066
   13.9379897246003086053178776637651026249034284941769292210066
    1.8320603821059719962249801028519868850721467666434568072180
    0.8317948893585889180712911183945834636688232421875000000000
   12.3920831251068612743893027072772383689971413741928020710786
  -11.5861410462009040145403560018166899681176430114672746191761
   -7.5891663488435519013819430256262421608026947794815726256116
   -1.3012284448497926092613852233625948429117225932412813760663
   -7.1761975742376948872447428584564477205329211630993131334481
   -7.1761975742376948872447428584564477205329211630993131334481
   11.3775859943447308353370317490771412849509858831639668811770
    3.7816695232973582818658542237244546413449414179133205360241
    3.7343781550999812779423336905892938375500458338594713651152
    5.5610241411030179037311427237000316381495323726329081006228
    7.7586007420564619962988217594102025032100458227141081118295
   -2.3633307037147499585216792183928191661852079808695884686892
   -6.2201596725810812671397798112593591213272016875352072940892
    4.5273717808026230358109387452714145183596494296577535769394
    3.6828678726361454565108033420983701944378253728931929280219
    3.6828678726361454565108033420983701944378253728931929280219
    4.1361717523253220818446607154328376054794181736118057111449
   -4.0430527472606838657043226703535765409499308152590509147684
   -3.1525008216003689298645440430846065282844816191604711585496
   -3.1525008216003689298645440430846065282844816191604711585496
   -6.9642606779779558934251326718367636203817034447403855507094
   -6.9642606779779558934251326718367636203817034447403855507094
   10.5220720399635663255821782513521611690598544210887014467612
   -9.0332088723453729528500844025984406471318806943745248449796
   -9.3215254704972636545790010131895542144843874378322597494163
  -15.4765006263557012289311387576162815094107843994104867006356
   -3.2292095811737775434835384658072143793129803586689318628561
   -0.3449471574389747496880431754107121378183364868164062500000
   -4.5963819121517195398496369307395070791278275717012225563063
   -0.4424237589022634864477367955259978771209716796875000000000
  -22.6756416373555289567320869537070393562483488835287387938022
   -7.3094567840985833484523936931509524583870229727545547059829
   -4.4944737922071258395817494601942598819765686194079114375677
  -11.2573383179036596857258700765669345855795596484987443902979
   -4.5008976099418180893962926347739994525942491201338225892951
   -4.5008976099418180893962926347739994525942491201338225892951
  -14.0592551107384977626679756212979555130108173905996515489353
   -3.3972496586374090199456077243667095899606868228325382618483
  -13.8582651785739372485295461956411600113016853515185068016446
  -13.8582651785739372485295461956411600113016853515185068016446
   -0.7917492337846536720746826176764443516731262207031250000000
  -12.1469393073307383446035601082257926464170052162722177955987
   -7.0593440187791820505935902474448084831289656837591162704995
   -9.7155215735398829934865716495551168918680997520156176212386
    2.7702891845268942105917631124611943960210172206478471535984
    5.3087647158397377467053956934250891208687684283958214363346
   -7.0287846978526484775784410885535180568746707713784199545445
   -7.0287846978526484775784410885535180568746707713784199545445
   -6.7075735672894447603198386786971241235782311694287960256772
    7.5572795245614479142659547505900263786371440089929418279989
   -0.7928832706822461773299437481909990310668945312500000000000
   11.6537133409291229213522456120699644088830735151239778191539
    3.8482538490437452338710500043816864490537305707250506540580
    3.2612845484117252148337229300523176789307712576175512487549
   -9.2278224105846700098254586919210851192542160566337709893045
  -13.6716868194447211948272524750791490078072855800765429982415
  -15.8917280555048581192068013479001820087549615306587812603605
    7.0314812151672851925354734703432768583349388657477138607590
   -0.9603189392073484542677874742366839200258255004882812500000
   -0.9603189392073484542677874742366839200258255004882812500000
    4.1785337423762110020675208943430334329635801556618022173158
   -2.6494805142518549345709288900252431631107722144544479904263
   -1.5055899367573717384516385209280997514735792773220707347478
   -4.7782854381063106785632044193334877491032419750244439795795
   -7.4501655971607201323081426380667835474069017398888456129127
    0.5282672543047119972925429465249180793762207031250000000000
    5.9876313323581209502322053594980388879819991144099959361253
    1.8659509293443514721388964971993118524565100443914724265622
   -9.2346593416697704270745816756971180439063206889924381748249
   -9.9188237282344715595172601751983165741039668882870885510243
   11.8361276409092255335053778253495693206874067507359377021121
    2.5695578321451537640029982867417857050914569047442486199599
    6.6990815127010820972941473883111029863406761023274238414294
    6.6990815127010820972941473883111029863406761023274238414294
   -6.9271677358077647923551012354437261819890370329941502773089
    0.5017482783647478905564298656827304512262344360351562500000
   13.1005539254730294373985088896006345748997614857075226806384
   13.1005539254730294373985088896006345748997614857075226806384
  -25.7721725873259153161143331089988350868414441676780116441465
   -3.9559902514214235758061022352194413542776561584796587026548
  -35.9981669980152361176806152798235416412617988387163276339391
   -3.1899416422808970494884306390304118394875120560187212279739
  -26.2438410357872697886705282144248485565378356168009037913021
  -26.2438410357872697886705282144248485565378356168009037913021
    7.2145898568633022307494684355333447456412867716376516172556
    2.8004414969763331555441254749894142150899480644746899936049
   -5.8947914040400855029133708740118891000790988751529530631349
   -5.8947914040400855029133708740118891000790988751529530631349
    1.9740572703639793772367738711182028055205543121371953267718
    1.9740572703639793772367738711182028055205543121371953267718
  -14.1126817366321901658920978661626577377423019547852275059151
  -13.5590277627405182414577211602590978145698981237735900242865
  -15.2245399149153755047336744610220193863026891316649071585128
   -3.3156958674776180195920005644438788294816535178976654650160
